-157230.496734165,-1398675.316025407,880993.3875662988,-1383541.11428184,43025.85779401281,958909.8170256317,43112.79987208559,-677769.5602521489,595125.6009287366,258373.7755595699,2734355.931839305,478143.0119695227,1313906.188281059,1008573.203115657,-164523.0146505442,-433225.3241403505,-884302.3178068987,1684209.533060184,-1204434.647304566,-3439597.487676735,-994718.4228248734,-671345.5218108622,-2593513.496831867,64726.90424035554,-1151524.335516478,-17156.6226034819,-237599.477370469,-874210.0794155562,-94758.33843908424,1104374.28918878,484937.2504198728,-964453.4118287078,1804905.009264339,1037349.328431618,-431461.5076380771,865326.2127544498,1559306.194773335,59924.8913275416,-366814.6956059408,1481516.37520781,-1691554.928742911,-168867.4942357923,-606075.1929507364,93145.46575927948,2153723.584033751,-12884.44638495553,-522200.087046538,-405470.394395174,-781342.3053857447,-2054259.147634097,-1272025.593601288,1026226.213854801,1421541.35141777,-1706020.956375744,-1250393.240087014,2019993.677360065,204523.3871444382,-208299.3913328163,1825146.962117848,-2566162.430575563,731059.1044283371,-18284.94114582208,663774.6424043103,-1541203.66585041,1437456.601653743,717270.8388970506,-1847846.197452746,-146524.0081101122,1210863.416822229,-281441.4454409528,-537602.6731630162,-1349513.648343188,-173362.0130181647,-1417200.40699102,960005.3482547842,-105945.8506288556,123420.3487449381,-86193.49154433495,24065.48663373212,1469245.215676447,-203185.1864132875,1709008.108817769,1418270.160548938,579943.4120394499,170874.1187635658,75826.97273932367,163553.1404164465,-2383888.318926135,1274997.638614,-291125.3984520871,1196775.350750958,1275401.705718578,-954591.8741695049,54988.24954415607,2580345.434300144,-156910.0095528807,998565.9645668328,-3676830.455481325,1731215.225682788,-340187.2799749678,-636616.3359540002,-530134.6267011733,-746438.3257722433,2063462.469476154,1177765.740601442,632056.4809145186,-1597429.073900408,722496.6853447012,710772.0957013131,-176701.3059850982,-1191083.13450386,-1272814.003926534,-906497.4892603746,1181271.171005899,-493287.1159475577,1548699.484405035,-459918.9246071767,-434148.2326795037,-578376.8891586222,-352659.0957287801,1541623.889855995,704617.0428841768,897996.362754219,1701895.443920395,-2130131.037733112,1154396.629154025,90052.25422573923,-1323267.68417819,2132467.824921383,924433.3199112865,202875.5197009504,-190493.3838267137,-2402540.857144204,741902.8277820837,3179372.267350539,1030112.174177559,-2513189.371909518,-1339417.19518355,-2746035.438042576,-1300759.673193907,-199555.5918985466,-342382.5652040431,1510970.279920836,1164790.913456926,2624096.409189533,-643504.5527474899,-1381184.703918247,417592.8456565132,399459.6884566647,-2734805.130723024,-198675.7195917251,1544358.938613964,2020903.404911863,-508835.0873732744,1359284.517747545,1047883.569067789,317847.2524815219,519457.4691148106,10837.23742232908,-282634.8151459069,-1891667.893101855,292878.1241439227,1860523.442612821,1127820.43050882,-1066201.005631808,-1828342.219361185,-835108.3130958696,-400260.6670672348,-638232.8171672702,-1068601.008085702,2891589.447010175,-3210855.036373497,327123.9492754118,-342809.6449756749,-2325389.788374255,1071512.205917039,-14046.17372600027,-631802.15487032,329341.0818473894,2169570.922188402,-237835.8393792047,-287981.3607333705,-1220362.33177779,372135.2266351443,-637474.3722815342,-2029207.07149971,315249.6809582466,480756.5663727262,2550864.601700366,-742156.1220210597,299320.2250763495,-1850627.247982816,-339788.4700166344,-1616977.77481622,1149995.275633415,640949.836572931,-971536.3357955099,1047790.882986588,973525.8202811986,1051291.44784426,
-153794.2259651449,60161.54808865909,834250.5240742897,-1521303.204235065,-1680231.347469686,-810967.7899126102,-400075.6268008414,-392943.4066522247,519753.1973409363,187662.9164194222,-193111.9079992948,48242.78666208774,-130214.5131532164,64853.46752534977,-958946.6492490739,42447.25680000969,-928257.9207129152,687157.2040245117,-348433.1877453889,-1046651.672857196,1031096.241085539,-2320046.204640422,1028318.9572436,1328961.998330995,-234281.6756270795,739533.7909309228,-2030511.691431215,-351519.5075477695,-2158910.658141396,-805132.1620413157,185978.1480186075,-1921428.448718749,538040.2897579924,924612.7228013531,-987729.603836788,-2875609.134621572,-1339733.069733577,704636.0122723555,-2103136.298760033,1461913.462903572,1631540.785990166,47268.07618385737,1443679.921747325,-1868454.644024181,-1954448.830463233,134718.2952911542,333724.4571695827,-664494.6152941415,-926059.6906611213,-1813007.162257606,-229674.2585733981,-2012723.791925571,106891.3895534366,-545510.4308354375,553917.6675980526,-2584061.190957125,549909.4281474758,-113302.6564357408,761856.5976223551,245903.2871931729,382008.5596179985,1653813.532165534,-912282.9700984444,-353554.3963001639,1543400.713640774,1357152.402475899,-703091.1242154754,-1405332.75890708,-486897.3889767362,-628722.7702786741,-492781.0635619303,89390.21627423284,-155843.0244521629,96678.53286883264,-159682.8308901333,977516.0395357638,457295.3546208348,1490418.3745834,-1601200.663563616,91721.85690003513,1353354.193109005,3201676.753314629,740554.9745153732,2538930.503889495,1013085.145184385,2376772.005286819,146148.6443387756,-3764174.539954758,30584.6948165755,-652081.9887622318,2765966.133732111,1289940.736150781,-97950.53388411818,2003968.958339217,-165186.9957480691,2475574.545482352,-1308936.975762841,1233588.308798041,318448.5500843101,-2297545.840393646,673466.9119324291,-1827912.938911089,408161.3075840864,-275362.6588776963,688254.9716009819,239424.5662475491,480011.8227843943,-894497.9339614013,1570898.939286749,-947523.2778902374,1020292.309222796,-2360087.613749353,1809131.298010163,-48278.45566159846,-277949.6036876329,-269939.696682145,-1551449.176505845,-2441280.024657232,-654546.1135481278,224829.3077265792,-2295593.890518809,228653.9022062089,1634668.517521475,455075.9806097847,153855.0611659787,847430.9597543071,-215348.5282359548,264136.3326863948,-463078.5968222755,237356.757671072,2264270.680363497,-1078497.888370194,734334.9649993054,853189.0133539217,-42182.66857497898,1237482.596267931,1931111.225707975,-1261204.376172149,-55406.48946446959,-1045523.209948959,-1381318.757698997,1819042.178008517,-101545.1419532628,-4768895.507533967,-214192.4061056575,-979449.9597449471,426219.7946309047,-1709533.471928167,-2321407.311255754,1509140.136518746,-1387355.675825278,395646.501218097,-577685.309770057,1468459.869317569,2814452.604553456,-388335.7996417111,-709803.043772394,1491860.704749431,-1151424.114455895,-537298.0801591314,-1595365.525895,1436533.323480798,948218.5408506005,230402.3320318798,-2222399.463601272,155655.5352554155,552549.7962452305,1369706.652169216,-1545990.682413012,-188369.9274038978,1401889.939553922,789128.8647771152,-1279125.327493889,-1506987.673668911,-1207835.749129153,987148.9664414,-845987.6130811783,-251202.4406834676,-2468136.855512048,2109036.495175055,-1211105.007035142,-1758772.714110609,-1259683.681240166,3049050.781662488,1325316.071358077,348812.4218284635,135650.6651260727,-1797479.415449285,1004669.512887898,655297.4172964841,1578535.02627059,1764953.299763617,-2552810.506250944,503890.9889934983,-2192425.102685429,-565915.0815698331,561349.1857186219,-2607110.405252988,-1882431.085820472,719435.3094266881,
600178.1840028083,-542285.6734840176,1940341.096615169,1393419.460661205,-647352.3720024582,2506554.436293603,-614267.3468475764,225253.7211863053,-1051951.437302054,-716860.7300335272,267585.3987201715,1127483.483109007,833874.468819894,2296043.137034091,-1773193.17173449,-391267.4988859754,-1183693.157962108,-1053439.916029549,722882.9544301935,-35972.68327496622,861629.8848478622,-862252.2327673705,107665.8484791966,675935.1572248042,7004.06364798415,-1406593.734306738,-1337680.431587074,17870.45435573341,-1360101.317371082,2027445.549035268,1248254.487666162,529824.9515321516,-361578.0909380758,-1026167.814840016,777986.9010994454,2106076.017650119,-392633.5872206115,-406339.1188928459,963749.1127333984,427530.599135383,1656881.661744369,-1312483.139830118,-866017.1466203859,1161503.625836255,-870894.7623765136,649453.7823765097,-459126.5938551995,1898717.38411554,-185109.8799307632,340195.4988889439,-804851.4031213272,823604.6899178243,847981.6785230794,-236351.5345319411,-1993005.906262709,1616947.39767686,747934.5692431608,-776129.4669059023,-1514918.033665558,1992213.965516981,794634.2872704895,-323352.8582123417,1473968.485367255,-473396.3213496039,1186445.824382333,-2441444.389515177,447654.5318328976,485605.7247154579,-2497148.022885195,-1069667.710368645,224271.736184102,384419.4500325174,694986.1921706712,1714452.027579229,-979274.2112573183,-485500.1371529654,-342709.6228949453,2091539.885443276,969896.2567061352,-1398947.966127584,-502218.4917856446,-661574.1655302469,-752066.9152275276,166973.4950003212,642027.2010520259,-1873085.137902521,-372150.2728636171,-1941902.747609215,30543.5801773564,974107.2261317584,400595.8246527395,1315745.931512045,1918952.954309107,1648132.805062395,-1305327.199688548,207773.2173269714,168816.1264448862,-1435338.006703671,-383629.1597456075,1078501.973810415,675430.8442295839,-328108.5490743091,2377991.828681381,-628889.5181414364,-3074338.455236285,-993173.0120915067,1961443.359064995,-3655861.924629751,-1037668.287880011,2162790.610942684,-822161.6205797334,-2026044.872387524,1071698.682076639,1791935.302691804,-2587814.95089615,-111325.960804508,-403586.0420596385,-1291754.7208818,-1449634.402762173,-723661.8847436463,-1812633.527424504,259900.5447542372,3152251.615896692,401618.6481082696,-548915.7702357221,463940.1294426294,3359186.721224574,1115613.316561748,1149219.405703854,596028.3920567,1533945.406203281,-1055597.281753223,1560600.148828067,-2735635.181632107,1930145.165660571,1939796.199479687,-138724.1301185722,-407483.2362730172,-364376.2328579276,-1573154.803003358,-1028040.074388031,1762932.61384323,-206885.8708127974,-1044095.094884241,879904.010416904,-2403261.645247424,-910489.2363137916,66173.56798494946,159257.991892648,-1253293.578377284,1522782.588616353,216678.4086754622,-638615.3625442395,-1004740.55663188,-832569.7609147972,186493.7340851311,-39563.74842929822,81692.5890952562,-1739322.170649086,-399456.0518562255,982009.8532097,1473342.251032732,-1186741.968955141,656286.0190503559,674157.1952728509,-1289604.742305332,-3663790.149225473,1939445.917140414,-153701.9736184767,-1135895.232202346,1055724.680540004,419973.4362310798,192664.7963839085,-1230607.619358605,156853.1020189041,1278324.548466681,945786.9455325927,-28315.55681720747,2055764.93740091,396738.6794870885,-529794.563011577,-1451835.25095748,-381901.4878952228,597787.3069731384,641916.1177155979,1045180.782310325,-1149066.85994214,74019.57936137056,-895443.866440269,1314342.795632773,921899.1432674548,1627589.755511636,-198399.0320134559,-1532480.407493256,-400814.5481913588,-1486993.329983562,-1530916.553148562,-1749386.105935852,1422438.513288941,-1789588.712196749,
-2157578.610653333,-77257.8167404024,-1088040.065265302,-1039006.23242195,1491132.345452022,208895.5770767782,1162272.755380338,166272.6507897933,1771335.5155705,-901443.3017751266,859493.468633136,1615540.865313558,-233259.4062681039,480799.6872448876,752631.1801256672,-881148.2367765428,-119841.8562445276,-449147.2004522482,514595.4159176252,-1629398.835702993,1921171.771007015,343454.2321285591,833346.0247044779,452654.8935336555,-72.65812395371493,266462.1137431071,1070457.64237655,1402231.227069914,-692230.0398630626,-1048374.376055557,-250448.0946279345,1022238.721959856,140514.5614898704,1170634.553185801,-1122526.474912363,-1006599.420316473,-734652.4330535514,-2562875.026619535,1305246.767786436,683220.6670852585,2114138.710679685,358922.1011163138,-675131.5644408619,1872139.953725216,1302399.062574245,1634230.249499037,-1225137.705550748,-1379969.876729839,-89938.91448834028,474225.532721796,573984.7328304505,1664708.100478101,-1878449.220353672,-2008524.403069556,2313060.09193171,686897.6881180197,-2117843.343669852,601393.3379501172,515088.1554565504,-565387.9215578715,686702.2407469752,-1429667.05480226,-241921.3551003377,-853625.9085707301,-1936520.592377658,-46171.11278108873,1015010.993779887,-380283.2436916681,430602.9722928645,-54135.77243099824,-1412320.727500231,303602.4656016978,-1093943.515851841,-506.3634099078174,-549604.556811469,-1433951.918308942,-645369.842549559,-850139.5450877425,-863127.3709604264,1007969.036494141,1136014.873149927,3700173.672254172,-1355024.123318098,-2286484.185274317,173450.5996406036,1051020.298546968,1623307.275262086,-527443.3103575397,-671230.1536411495,1144096.550102259,313876.2447552613,-721302.9570132421,-641923.6855921295,-564946.6257249666,410029.6295956326,-333473.5252798121,-265741.0796200178,-429707.3712603599,1420906.296496568,65691.32779324858,219334.3137885877,43566.67381165949,697367.2911951675,1207848.330360449,-1705061.758406783,2111880.491655172,-924520.4691546721,-3323160.233656232,-756364.9117309169,1156313.653102722,-3329511.786918423,-1208617.172348513,2664042.165652445,-606096.4260101257,2446324.245730318,909293.0410298237,-1672160.588988962,1157135.071553599,-894089.8795692667,-1035740.860973974,-246870.4780561273,2193519.875185792,-175508.6566003189,297349.2506228879,-359567.7913960487,2535933.097135156,1627772.951900209,31069.24339710065,1775733.879470854,-679081.3390223926,2726093.287914122,-910525.0242884639,-1127395.274573748,1197424.509310274,668915.4538770088,-742776.7390069597,1434723.584169878,-536389.62289033,654201.217327273,-491125.4581814224,-646088.0926339064,1957386.121660466,-2202838.099509367,-1537826.157584926,687606.2363867457,-629158.0852817921,-106080.3814853392,594496.8652135937,-777780.1490143408,2060395.33877581,148138.6287957531,31283.5577921842,-1436901.332484027,971083.3192808307,-1098113.60341479,560765.9902566365,-915569.6746410304,212375.3096557613,842154.9194802443,-1075849.807914985,687794.3431482775,-577327.9434757172,-920066.6224055758,-1129414.00548537,511937.0542383533,1399485.986089051,2234584.245838056,-419530.8146092498,-1139719.475281845,-249754.7541843619,-1987438.618929225,-495610.1426192379,933752.6890481233,2756833.913875498,-2671301.984537065,-490491.3175331317,-580109.1591636137,927463.7705561459,926004.9156624005,508048.2389357648,166841.9179597171,-1714190.629327688,-1182050.026762551,1006349.821644829,859085.5020335325,-698736.2313462195,-2851772.499063473,-242316.9578623285,-648569.7941317593,-1145682.560633044,1528962.33976784,425946.2752155397,503049.7195173405,-1768854.600929031,-609176.7808109531,-1091073.497093615,-457705.4599631898,-129262.6652935976,-1065766.377302725,610299.3963853322,
2328414.690558545,806316.5577391526,-1582796.843976896,-192496.9414375417,2511316.975437806,2107594.579361561,107930.7268664001,2274206.533174418,3244109.747877447,-960567.9288153186,-1130936.914861035,1648003.748976343,-1487660.267706771,-400362.7515929822,1238108.61921336,-618128.7344291612,-872596.0545302931,-116000.6400725213,-1514532.678477542,750287.5269503664,-1302339.044138809,1849652.445447204,239140.158660568,-287060.5239845944,2194828.205723559,382335.244117404,2314129.597031642,555779.1410503602,1245908.205581125,1340503.751489273,-1515197.4658133,-565649.2465587578,1400898.687993569,-1370234.590461729,-1713432.343172179,-51849.29335679809,210588.9518816534,-2025252.275846584,1632423.183747422,-1505549.78704466,1558663.249629217,470010.4507216928,-653685.8312274448,-366138.4032794697,832001.7225422476,789483.3327350108,27163.40753173035,-102473.5996102517,-1437463.712596475,-1506915.107486771,758098.7420603374,1005003.629170407,-499072.5458847646,-1005482.278065859,1190801.943566934,365836.9061524982,1550600.090190814,-628004.6227792241,-692268.7898608856,234373.315417572,-2210807.016583302,1204113.008567019,-852990.6834940106,-622903.6196924255,-478073.0309818241,239913.6502892537,-738498.1660480687,-884897.2391743362,-710101.4534988876,-1402175.690920749,708393.4749975395,267708.6962224352,793109.9078941719,1500336.472951186,-733483.7826883367,-963395.9367489909,-19402.62312321772,-570857.0616760806,-324795.0315169162,389184.0589744816,814690.2728351498,-702339.0749443731,-1703685.025867591,234802.9458883259,-403170.3385357985,719487.3201497863,1732176.585639631,-1328782.487235256,-2449444.053703722,1162636.578991575,-1283161.811134472,-1508113.021687692,665243.6286428254,249334.4756304121,-832562.690681317,1275929.701816308,-540099.0802554417,-217279.9658824136,93868.0032765714,-1804649.535771457,2866584.043515121,1102805.098491803,-604784.656990433,-568152.0010124746,-212769.1511021475,888082.2162317898,714054.0413815952,-720206.2493133974,352030.3111655184,1609551.599352352,1034336.850789885,1581497.367968551,-1693398.300429662,35339.13757077385,-427847.1219801505,-2186364.033679047,3243911.906063969,529937.9925868551,-1023647.122673653,1615364.000076285,182387.821712631,-244811.8851420244,-1281729.833190354,-426889.9159929743,798447.2832244214,2139492.266117826,-222493.2359362935,-780317.1180375094,457488.3135927207,-1182205.175050766,-1632855.251232316,1707175.426779254,-1185278.408114582,-48909.36011314915,-290258.5299507853,-1354747.14352637,590770.6552267983,-2046565.776169062,-504672.941995948,-456580.5265742608,-1076466.43090849,268656.3839157947,818351.4365178245,-307438.9436527229,490467.7995223965,1696449.878373033,92689.24695555714,1763623.853970153,-1469091.789034544,2002788.787647068,339370.1737201983,-1739197.535571973,-1350765.783217561,1154413.567116703,-1186592.382143387,-942466.1195687574,-2455476.564977777,99399.78756114241,700887.9258819805,1204303.753239487,-750109.7995339448,-609808.4056645222,-647776.6985264905,308523.6014795037,-443240.7071354749,-621574.0429487822,-462692.3806011496,1259579.057064049,810196.8619509566,-1277302.386542094,-869080.122447143,-727879.6777351481,-1237779.836003876,-679524.6885206796,693290.1870930314,227970.8972285159,-390918.3318453935,1899119.613598726,-478396.8451056562,-1107482.36934452,1779903.183011913,-1055929.954768161,620377.1774687131,463143.8430321474,2350610.913920887,-1204608.569454395,-637575.989831723,2947177.312938266,-977605.0857436466,1116315.101739938,173090.374504509,-1080173.40325182,-1010347.022438938,-556150.2352297154,1231027.479873219,1071807.186710055,231711.5636760953,-527553.3129012145,-40200.53303668,-564435.6718544567,
-1766415.909912474,-528515.0022741605,-511221.5032571355,544473.7474055483,-177610.6189799409,1715490.878236317,-2086123.429305853,-1264251.424852358,29830.70187455183,1139418.778775207,-4825113.788910236,1576054.248064001,635011.6325767443,-352776.6976612206,-2444675.010362283,441548.5764689803,506931.0238655074,-146892.3312571557,1208033.64646676,2303205.410257056,-2968739.680369745,392775.4973425297,-767077.7208548343,64802.16439674066,229500.2073703224,-1140875.591560993,1422372.152909924,637629.5903192401,-1378496.822929076,557192.9000900917,1061421.619977259,1522860.885114462,254367.0173342391,141376.8733597245,-222252.1589018488,-711281.9847944384,-711789.0954756303,-980742.9885813658,-1049515.539905265,3496020.338652306,1183388.24846484,753448.4326273402,-2135644.178582688,1109070.508332208,-775399.365022539,864449.60177663,-1070493.725189276,-838867.41508144,1368486.281283316,2299219.216624366,-1815228.116393547,-448957.4925549944,-173399.7116275744,537460.843026433,-445852.6884349232,-584822.2306185141,525954.6700549773,-1046780.011788811,-1243690.141057239,1136671.274231027,-1972569.472519744,1586187.144975904,-1247640.367908678,-498805.5409588986,1450195.931245607,83629.76399564359,-329010.7010201644,999263.1786539888,919230.4330687406,177371.3590420051,459016.1817914993,-1279474.767591405,384863.9593338551,1272344.279056114,-2876801.504198548,603637.4438767259,-2329117.046335798,570565.1487366164,-1655235.990258509,410496.5811632898,349644.5053482897,1955863.024008251,1928761.44069556,-101584.2195892241,-1136747.955661882,1561561.18878442,900784.7439918198,-750945.3315407838,-906029.6608552132,-820129.6705492547,-2861380.315138346,579657.7198923369,-480528.6310091281,-2226521.778753438,977178.891388451,-8472.994427094158,-2170624.364231928,-512419.6769840427,463471.6881828012,-2286430.337357913,-1357869.999441671,446585.3945202038,-1992736.967983586,1874008.168957777,2192817.865612065,-449096.3016912243,-586451.1952537245,136183.4399500859,-798949.1133234563,-641815.8719644591,-34973.92025805619,-983739.070529595,-1065869.321409077,544558.7174827324,-217429.4636053695,328366.2588800776,-1020087.481572584,-912834.8242756554,-1533060.807274095,854698.5486361203,538540.9618729843,1018582.688459057,-1132527.341850231,-822963.7016260911,291090.4525466143,1058850.108501745,379185.6652834811,1041343.758520677,75437.82238780591,1462387.257311877,-265314.6864572227,-7856.969751844566,255537.9708762619,-1590866.931946983,-1429704.501110926,1184722.738241687,-1894779.95123856,-564341.7010528446,-1156575.490178495,-228243.4259932229,-1699834.349306948,-3052114.53580007,1690198.154470963,868525.2417954534,2110148.20536454,-2467275.563306263,2553478.016574834,-1664265.077555593,-2013472.021684918,-186152.6814409772,532582.0904608906,16488.07189277487,2348062.301179592,-1029476.152688733,761508.2761277368,-817503.9758008959,-502923.4301311718,-433146.096268199,-118542.8247646615,2257298.420982709,-992972.4495664983,398917.0961158162,-382149.4420717502,1899234.250038765,389781.3290167596,-1433156.295803127,448153.6834574926,1468907.302113446,-74067.92533238308,-1834158.454639992,-964783.597453946,2124428.340210429,139893.0189004807,1005510.741530137,3861485.504434648,-1626341.42766796,-1457143.748342967,398739.7735969733,-869899.5338935625,2043567.439770737,1415179.01225564,-610561.0307291257,-1434761.690106933,-1600320.75760657,-1663943.096595269,1858405.236075528,1601172.006193483,2549236.989547694,2348898.193036952,-1467732.194074059,-1355269.470076332,1046435.084371314,589209.7939171165,1338377.670701802,-1135160.108748328,1577919.381647051,115362.3509859861,582732.4303396493,64180.33513987836,-564207.088490639,
-28847.64244280006,-2398320.710981796,-559357.9822294292,1985129.459898252,-19968.97025958333,-211459.6768638001,2431733.165945872,-855807.5637369006,-2793990.467806314,1569286.416479523,-2429788.066612806,-51608.52572107012,-506122.0885203509,1108116.602403086,777663.77899352,574065.3812335711,361283.34010729,-1967007.987120885,-12531.56490474915,1001567.424389821,1673628.899749384,-899915.6928448339,-762705.6567369521,2419632.380175989,2223580.304206784,531470.8768860004,1270654.364377046,890889.9168303855,459986.2325181944,568375.350918422,501209.4033200849,-4084362.075738669,-476060.8311829375,11780.2349358096,895219.7136799656,-135215.8034765918,-40218.22836302638,1965546.838328595,105327.9164723137,2408000.496993582,-273298.7720009579,-866285.115051618,-1430288.287462168,-560880.8945209208,1959780.182381757,-1958927.205948241,-270244.2876203264,-1782026.609981154,1672685.895865682,-847770.6259428525,374745.0822116403,-785906.6813145736,-771925.3559256437,-667516.98629885,-761381.0795502122,933586.140987418,-2090016.916509784,602830.7716965962,-827328.0378667137,-99172.42435818654,292050.441883082,924230.0174170872,-49509.83555035858,161689.2738023966,1765777.349408539,917588.2730609718,-132142.4768946518,-2179638.843093473,-34423.74676404594,-1492480.727054854,2153661.537441932,705611.0168414017,951772.3081315466,1130739.954136114,1620490.088588807,-461411.6168287065,3240923.27892704,907306.1655015497,-1158793.28283426,1197825.723408786,-627539.3547982776,2032580.093592157,-1473210.535555267,1280480.191636845,1001347.427551274,-1554542.73805255,-18389.18671298147,-501983.926519029,-320570.8065992468,-1263523.017813111,-2676499.037051465,-285387.3192072717,-158918.7685178128,-718035.9740815698,-1633720.381375191,2494891.534686239,-1146687.981555001,-209473.9769614065,3372061.663647603,-1172231.311731608,-263255.0147689388,-921244.594891596,-1487993.22137783,661008.1790339565,170835.9425013693,-819078.1208441686,99279.39244993262,121832.9159611945,-546387.2784571967,451867.6915723443,-880374.5045061694,-1322143.029513718,467346.8886167228,108264.2541990535,383878.5722398142,568151.2325510632,-541188.0130343785,-1814335.556585274,-182553.1685585797,-1196814.353759885,879834.4019950031,901611.9524851012,-999184.381063215,145095.1340818539,698839.1999199186,-2056166.72049137,881128.2607457878,297321.1060938213,76558.70936311345,2065511.475797305,91322.26924122227,763996.6860090995,-225509.1142395825,1050144.609756006,2179226.423465108,-421042.6082336258,669748.0928726686,1611170.097090887,2436302.13257177,661496.8003764652,740494.6393991975,1894974.233754609,-634649.1155944945,708762.525693814,-381566.0493517285,787602.6802176945,-515691.6166619057,-2573701.761520901,335600.5437806895,-376372.3207424001,836835.7308748569,-502399.8992925227,-858076.115737792,932442.3730346165,1016501.119529524,167572.8654774706,1400842.607988843,550369.6557275469,1862990.169591521,437570.3534439335,2910483.853855257,581910.799610219,-172767.1703115899,-857289.0835118814,-1513984.298352845,1782475.992557981,3005203.751660746,225962.411512061,-118345.7405677561,782853.9880193947,25059.36132838723,-52926.31491323574,425752.7174555997,-540118.6632974067,-1859171.57482417,-308227.8809955521,1780960.225142339,-256271.7587681013,-2054853.834353056,-1439890.275011589,742924.5658911734,-691648.9316879264,-2201038.169096545,-653147.2853584841,275369.3220009042,-2916024.328935586,1253979.781130488,-597579.6313430151,-2938338.630662166,897985.5438947409,534033.5553514854,-2145019.93365177,899690.1480389255,-751607.8729976217,-325111.7371791594,1575433.198862945,-1075342.933413971,917923.9720073442,1322241.031991196,317205.5144874314,
-701995.8050370418,2435386.587574846,354535.0763413542,-1635147.085898819,-1789596.545152341,-3130406.84505237,-2367703.14892229,-1067740.300865957,898124.2492122402,-246666.6808715641,505410.7356368673,2171187.988846684,-350377.9343372326,417134.3215094808,-461968.6041140018,614759.1749205735,119247.2094424822,1063078.841052239,1143102.405229302,-845276.1180795837,-1240665.762485014,-920314.6417422469,3046439.546695984,1045012.216783104,3057420.09826317,-1943124.74443863,-373486.6457158774,1933366.578524255,-2238596.864513068,729117.1954468919,71585.82409812175,-898038.1315999635,240095.522647973,1563604.936607746,730116.3386316444,-441463.0576871969,464136.1958078459,1506208.377458821,23443.06093090093,1330508.341675075,1187762.043570261,-974712.7859099769,-622285.4016762966,-1367400.488229546,-1299131.485785771,363247.1662743129,-1680204.229373813,-671426.7319882546,372032.0873718981,329152.4798911698,-348881.1922654263,815655.4899153318,109652.4502046606,-298079.5196377383,995692.4532929618,-541051.8658610552,-87882.73043337288,-1095454.752006473,-2895.71356120779,545502.8301639562,-1220241.05394468,2148512.467930738,553877.6747766358,-688049.3435138265,-2035822.018995902,271260.889645807,2007.889685736504,-972201.2105552413,-85763.20535585938,-753189.7314175147,525537.5176651948,-1500489.249546751,2651616.677436879,363009.1689995506,2362623.89449668,432811.5079829075,828071.9106410788,-311311.0230285107,210788.9340811502,20235.92322980141,-1018547.054661611,1321824.517927191,-502326.8354985777,614265.601959897,549590.8671579679,-1255778.54040673,2213778.538782484,-484925.241604748,-260336.2686559176,-2230186.220362465,2174764.809872611,2130589.47003694,411637.746259426,-874631.2070620911,773325.6799888286,535820.923689709,-1151544.366454794,1221841.183558178,-2633867.783814493,-192295.6962778603,1389102.232471916,-2452052.925083901,-462726.3754528754,1612572.932016533,1037839.81580532,-1582069.036505842,-54395.20986816785,-990503.3934127034,-514244.6766078659,1269991.310378222,2145089.979015014,-2049811.603229783,443799.10504669,-529829.3949696807,502441.3538708523,-1524550.731260361,423043.5362146626,789150.6735605327,216952.7096027363,-351855.7939309655,-183717.9146942776,679814.6246505884,-2084994.870540345,-2392405.359386909,-83935.59196341697,-777332.2610052277,342640.5504202396,-493197.716116807,142696.4689706157,1919519.344067463,1273658.33113598,2436654.992648415,2252128.584033928,-251432.7718666286,-228995.2571605667,-149605.1735248465,-1767854.814455115,-1590784.545764122,-1963872.454280877,-217624.0033014975,1432116.272100542,-981517.5852455714,310892.5168774067,2006687.993668817,543884.0419837035,-2005412.341454904,933267.0799426755,-1727196.894307275,-1671860.293239311,-113904.1412732452,720661.6977871885,1129893.941490095,-1401098.253370166,315275.0964925971,671442.9278697324,-148527.9651432816,-1295487.925733797,-1710420.409197021,859607.1310921774,1394508.45079021,-1067521.119629848,1054462.502221439,853065.3757117584,28857.47005301846,-633549.6459246894,154551.7957653843,766844.692752413,1118992.271476639,-2960437.065777757,-335289.2880025769,864738.9337515631,-562487.4828304467,695523.8319648545,-988955.578530352,630611.8414398486,-378818.1817923711,-346272.1529884737,-1033609.311461581,651238.1116755945,952621.8294183591,795561.9173579746,193383.542378631,-673547.4059817593,-383590.3895670289,-2226225.416800724,810023.1957692285,-302566.9031011042,-1288003.437427978,-284336.4155144832,-1497006.46918824,-1058547.261098045,-678984.3517216127,-1211677.717606891,75986.87476365358,-1118966.79880054,696610.9765039536,952329.8598297208,1055074.566090842,-1891677.024541095,-1684059.949345186,
