23.24404857776848,329.3945526804379,101.333173726178,140.8441391160428,88.63971672240915,-65.44847454092429,170.2375365085733,19.96637811987156,157.051417943566,53.09883134876341,-223.7214656245814,326.785141623998,59.20098528092593,114.4440202507417,296.1783897378509,139.5127683268957,93.7116181843534,-139.275452255917,-128.2033034874737,260.902903270388,-18.06218328933834,6.143547138745382,-91.58583212111841,-85.78889961105675,115.7897964760393,153.6287432938661,-11.44518116703367,69.61498728025269,248.4226992428014,81.19709055996444,116.4347291143475,143.5728881068701,458.9504427590545,-183.5524919475503,290.3387720389065,347.1538733123097,5.360768449431772,39.88697028635494,-43.13180632235164,47.01430548809445,396.8364618733094,121.747971807565,-168.428263821963,236.4344234387582,233.7378201078772,-88.92012041355432,64.1878073047446,-53.53384842285393,-240.9367274610615,-174.8859276219027,-24.94907331545113,-11.21066510747064,35.77244138060885,137.6338916563841,68.96502933965428,-143.6386444568776,-153.1522775259797,158.271518091772,57.85942903958347,100.3220873996925,-377.8491629857459,24.89345527203205,18.80961034536407,-25.57125666086556,-221.4064674446938,73.80775824613782,184.0649362258252,59.53554307038524,-39.34657634460267,-81.62720311487233,-84.60081548318307,2.494804337194078,-85.82689762184286,82.26167373911358,-222.8491603274597,-377.8450626607627,266.6871250380801,-116.7027719891149,-57.38543325022721,65.35309014550022,229.0828122792545,149.8809237659849,215.2660441394977,177.9837862273537,2.749950997063185,497.3426725590189,-98.94741075094737,-169.1860604134859,16.61122652846723,-29.44556790125004,373.624765125845,43.35408494720798,159.7319073935837,203.7518564991978,-78.7795909680942,-56.24016767417301,140.9631077635235,-205.8015222775985,-105.3722390145654,101.3467682765207,
-355.4918324182976,-136.100920822205,151.5204528602149,352.4726129366069,189.5950431406475,177.0642601316875,-31.47219866697011,81.34674575619883,-32.98246522024683,106.1357232164503,42.06685565748889,-35.22944578566466,16.09131665475963,331.5834539150471,-77.15648389011831,-119.6085692980522,-43.8810767927129,165.6767194914152,-26.64242596582462,156.3402382440062,268.6628125271336,-14.23214982849276,-280.5193244203829,-242.310121270317,249.2786528786414,171.3517047413726,169.5003609206063,94.3230824364405,109.3900226367775,-10.91627933258213,117.4748353683595,-87.49957614366072,82.97712852274144,74.23526676607823,304.4887951859763,172.0061665248087,160.3101365120441,111.0944196370683,329.5617666668405,-138.5066811798156,343.180446189163,262.7243913054495,-108.7416487879294,444.0374749280451,232.5857820189616,-5.905426583520437,56.51543118084088,-226.9617438125754,143.0766495690338,152.9479800794029,239.8564774246942,-66.31261031367386,181.1765280302211,-124.491248985322,6.988457222262579,33.64669013875255,-20.90595902031771,139.2354015968816,-4.402336962246895,81.85861450323806,118.8477420226796,-157.0211348682843,-69.78367826611789,0.9067692735849446,243.3621886776742,-190.2331295572965,-94.7703222547409,37.87313730965468,129.1907823701384,-137.670560724038,-248.8916626697857,242.0041952290739,384.3073185128726,273.5793806986209,177.9690987172486,-142.7336054662352,161.0506829332541,442.4941665790114,-220.4889209296201,104.0619306037342,-170.071980725637,96.76094484224066,61.33811219775902,91.70251251806386,-123.2511823914816,-55.6937907422008,-57.89418822216167,192.0049890952135,-24.55625263101484,-155.8401806785806,-81.29106879630014,-290.8708148918739,-12.13323553560738,-106.2323119285285,47.37957614860299,129.9705807717878,-294.1256178788393,-12.54512939338885,-173.1132234037923,81.05657830283532,
-102.8003835993309,41.91125635885459,131.1526815988081,-46.98348448185696,175.762135051238,-243.5082331918247,241.5362124332225,-112.8635207221865,464.8832799739094,38.20124430101652,-8.101984526911394,427.5543008768254,27.86981578956827,243.5554272472418,-157.7070272338341,147.4887907192918,44.00412982893767,-381.6707721100794,318.0048228219821,6.513502858617765,210.5883987311369,-97.57115982283146,-201.1281153842523,-73.61119338658361,-182.4109197632162,-29.15600631322708,168.5961248596176,-49.77916487701714,184.6107893114892,58.03583037555583,87.88851849920064,5.724980511599155,281.8284646530669,168.4937767256008,45.5963045852701,44.29219991233027,-44.86559067421067,319.3260193814851,40.73939238390201,267.6069493415676,-110.942607108452,-100.1910279657584,112.0927017711003,291.5711226152173,104.3681394143929,-125.4820604974623,14.11393168905726,-106.6636139342908,-176.1584144307641,-92.49176781598977,317.68951283127,9.008103192623832,-237.728019066279,-4.970297675930748,143.728092159919,236.4475183519249,-56.84465413924808,115.4986543314987,-38.97958388183184,-109.6447981750377,-179.8055600653089,116.3114288172581,265.6165519624096,7.82804715123131,13.84950170930895,-14.53120946906888,-289.0934035294813,-255.3188115747034,-28.15356122309823,-208.9221232359979,0.1610036036927384,-47.75125119346878,-224.3971245102917,-192.0331783157476,340.9054852650418,-1.026929497516348,201.1250627984513,237.1023572809683,159.0661350532664,47.89778836086803,-2.588140045780273,110.907693562539,217.1870308741838,54.86524010643258,121.4041309817212,51.12476819263727,53.93615384672222,-0.9778422755275513,-2.906544543991266,72.1849672282475,-224.7160709727027,-63.91072280277682,378.6708615207239,-86.98720568455988,-190.0565210888531,-261.8264809826381,19.8529576799102,294.7926868024484,-142.5376259090336,194.9821553845358,
-66.28316938294186,262.6172899846024,68.89245537415771,123.1722109400872,154.3103238586191,274.5022825722655,206.448078906517,-23.5093287351339,-8.463998231205556,-212.4129180792915,604.5721361344829,204.5635135811823,10.37087203921421,-286.4508832477289,64.53384017994347,213.1585367520195,129.5385642510849,137.0618227165056,163.9601255142945,-248.4817573330997,88.36119135088556,186.7438684776568,-12.71364631188612,217.1491858344741,41.51616275748183,77.20751439992351,-30.38689542286079,80.09919018840772,125.3297029332023,369.4109349395793,-15.09576519048334,246.0212906159069,172.9486183010632,-70.23562823098453,24.52018815038569,80.36220707536128,-173.9740751778407,224.9084862915495,-96.60371830513692,139.4800766838104,42.75636366901912,65.80790167572771,207.8082888894807,-252.8854222744054,167.586159841102,55.56742806533404,483.7662209054898,-328.9519369225173,46.93629880373879,54.39642390569944,176.3153639684095,194.6335691966064,-148.3291047579905,156.6245881775338,-198.8910764122051,118.8561817516552,407.0049508427526,271.0723155990014,19.0956983112721,115.3771817275112,197.2821919428468,219.4986747860881,66.26154804916511,228.4648080983975,325.0261489292989,66.50534758693215,159.3202878600067,328.3814148757805,-136.5627700307819,150.6336994705698,85.71916818247433,334.5417463179407,-265.9129447903001,-270.5511171836238,-56.64963741131348,-75.46988235851444,136.4033182945535,-162.1730557800158,-62.08633761234556,37.21783104788533,248.2633705328279,-19.61206696776603,171.0693320641904,248.5947979052796,-83.53705964717508,12.63783641993779,392.5258165733749,12.79568131407095,96.60398648596571,279.439672875255,-74.41536226600962,116.5793419322756,-53.84490101537185,-190.5372263641679,268.1857887642504,-78.57455315934476,16.51515988191385,63.87701309194987,-59.12326433569593,-204.6368333669271,
-91.85075122628109,249.0351985406569,-68.95671500979655,219.2768714870536,-38.81826104189235,-114.5498346107141,88.73272276408692,-22.99135889630307,212.5125068096705,-248.157293991471,51.01434247679546,194.838492007801,173.5152244370271,188.1459876460334,-243.756329723588,-72.67464887256762,45.47787138639638,-108.5947315164865,-52.32813010751531,125.0059625278835,109.1582354966222,185.4264724316613,197.1336852465703,-262.6066530865463,140.941112605792,105.6982083379641,-149.1635640005302,-184.4439275194457,216.9257227912382,25.77505174194096,310.8356464481763,-60.42488544534082,-81.21702740131114,257.8574885246979,-64.45604546838769,-75.65797490257361,217.4509631336288,-58.51629294394328,12.23404660873683,-72.24367997928846,169.0055976149065,333.757181067294,176.1127984845845,284.933807131681,223.2104008220676,352.4375673393163,-37.4943904843169,242.2706881334639,-41.73116939142706,-125.1312355911481,-33.8002612294058,-81.96774843378371,21.57134778387735,-244.7498696017348,209.8272471263063,98.10358311177623,-320.1660062714529,-63.24543456386535,-116.3750896317733,39.18221153422862,99.10061351658339,-144.3462942189911,204.6147230272479,-34.91412063603283,250.6669233179232,152.7972011661962,-123.5168508647356,-4.124768737684822,282.681056764151,-52.64421483723929,-196.6404190215287,-131.3237081180176,-118.8170828647892,123.9464349156156,121.0854971268686,-63.11239758612375,100.9780665449281,-379.048990132162,-54.39934335889822,-115.6475469381816,-53.2136262742556,185.0189929495672,211.1151266640253,-156.5060141501383,-314.3642776484162,-27.17171157466039,61.88162393346681,139.2813430926829,95.93052204390735,-246.505976509642,-30.58015225786063,61.30743321124285,229.698368773529,-203.1246529732679,106.3002955525001,155.2010856752607,159.0434463986823,-7.18396658597857,0.8650140933710455,230.3754925537115,
-88.00954405922216,22.12184537566969,6.926509624210873,197.5371013809562,-90.06592037811387,12.13531490711003,-68.09793313870199,37.34155180525116,11.68862108273326,306.7144422904046,231.9166744563092,40.41763959656543,-13.07403792947453,154.3597567609344,215.7249431386021,-115.1094398000747,394.1496185511111,75.88364123571876,158.8117239130572,-8.704653730971419,-194.3226801640166,307.6585829602713,123.1283297781169,377.1209291983762,-160.3753971631156,-2.274729867395099,91.60671338058526,143.7921980310316,-115.5950246824493,294.9258067478776,475.3567602433016,19.18352336596381,-180.5348968708853,17.28635275948896,3.296895221957759,62.03435773727802,131.411794058176,601.4356089387514,210.958600645043,-64.52211656972942,-390.4506407511021,-408.7032120029078,38.23848033398156,-161.4569506928206,-126.6805939098488,-14.78811464752814,193.1567309156393,-244.5268782898225,195.1582130357045,-117.2811897520328,-140.1629502909645,294.5353012673411,-51.50032091336053,-66.12404064188763,57.42341671516063,147.334180907361,-182.3369616358985,230.0927536668591,-167.0622839802943,233.3759217387752,79.36162289596965,11.68373112294941,21.04754706405192,81.76729867684574,-28.82329871629213,-155.8571703475414,107.7700393479689,97.41196362575292,150.7119517700257,201.7273363374304,134.4588909578784,224.4123361722584,463.8046724748529,-222.9109550736352,-181.12920970967,4.694403070381136,42.26005215353877,123.6185715775637,195.7796012837863,265.8338003602923,-235.028552916541,-8.498235755545013,60.65216905970873,-105.4745069099324,158.5597617119017,71.41336652298494,124.0075045509581,330.0491457033101,-113.6621307355039,-100.6423613804926,149.6142490688078,43.15186557964796,198.9319339912695,-70.21764316196686,44.29617626623587,-40.55449783581932,252.954577024311,178.3318573163071,239.2793521201631,-139.6515781950369,
245.529918943991,59.93910876159803,215.7781044711168,-17.12467445603119,12.46838470480171,-204.0443201046196,57.17438457601868,-78.40079273419443,15.40840403581729,-59.25303936445091,103.9240365671058,104.537497284056,44.63905551051557,-164.055335605287,318.7194064070544,11.6734658835495,-137.4156175362371,100.6641386621856,-70.81447117005037,-113.3352304648072,97.16405096888023,287.0811861708608,332.7358513600022,91.75539817426477,213.3325966166514,14.07580563291019,140.1015839224074,175.8683166369125,82.8190477678705,58.91379841489814,-13.56106290729386,121.3723332257753,153.8000755535457,52.08272150812375,-74.70401169504399,156.2426874051624,147.37777921632,152.492357410173,189.1502767695808,2.058911785863153,-439.9420900064293,-32.29814703171098,97.47816908173233,44.67951989031662,-54.86341832253957,44.94610824641838,-75.11667299130647,131.917496788275,-145.9405918952617,136.2908968371604,-53.78412777859179,53.57822301672869,-26.55693470682857,117.2494514342845,99.16775724378653,-20.15090794665953,183.82877575762,7.679261716823222,48.50134356057019,76.23834069564775,364.7249374851784,131.2579548333487,235.9340693169803,-170.5585748223668,210.9347617737508,-78.9866312953819,313.7926413953653,-13.45911315362657,328.5728860040341,184.7958176182981,77.29615749693436,292.97967824269,-295.0749123844772,-147.1653726875681,-181.0546045333735,-190.6077698832156,-30.7700751565056,166.7712237876331,197.2815796726009,168.3220316228254,-276.7038100329341,-21.4227618667203,182.4790064583528,265.2646497242114,-195.345919266215,117.8624128908209,-84.99282773417156,-85.39883692062115,109.671689831229,100.2558875142599,-53.90193661074218,442.8808326907048,-58.47961505819507,283.9937698473683,-52.79667159649724,205.6587715342911,-128.1182106068665,-186.6735481732114,264.0229433056547,-89.29217506431856,
61.23369627114383,93.52973257274998,-99.48057802615082,-86.86210146350673,-365.2319411755554,63.21497542466849,-87.17793575500296,87.26663871434071,-140.7869062531632,-266.8661834203003,-68.65222334733595,364.5805716939473,-22.09671535460712,149.2406917824342,103.0012874371879,-185.3471469078475,-478.0929164335516,101.0018496375358,-42.24155031442545,328.9024307784023,205.7010949470814,-231.1377125345055,351.7828214410845,110.4756472980735,37.3409148300462,74.3019988934322,-54.93600276120811,119.5416149635269,-290.7420931223614,53.98289406002116,56.64604199295614,227.9921636944691,360.9661167516495,-95.42948118100767,9.071163411649332,31.09575741050445,160.2578576686372,172.4953375564905,257.3019504285151,-85.36675162466831,-17.35775279519602,-22.33724634927906,198.9507694895385,33.34402910073798,-66.4416204205646,292.1234919316755,-125.1852842191436,-24.39393707451491,136.7730578429273,-244.0555465143762,295.7781793689304,-114.2792718600011,-346.5143706205995,137.1430464495265,-178.4516110148855,164.5431696962851,-217.779038240437,-351.7603602240856,326.8431712488244,44.2534049515072,368.9129855040464,-146.1777370012409,156.2125173505397,508.2838084270922,109.6940712562548,-59.6025320938551,33.55783990927063,30.35005701115166,76.00382693364058,-40.57415644863107,66.87538487087144,41.65348984203351,-266.2437380115885,179.4103957993542,73.3375695893525,-64.43891745263033,216.742484219651,249.9113609412462,180.7584920161211,299.9407196267769,-92.92061636325201,-219.5503090116653,182.3608331394753,-273.7519631856036,39.00317056512633,189.0434295331944,11.40179381506636,-96.78023142908224,-105.5864396302587,33.22659003323043,-48.78162171610795,73.51960642930314,-246.0217146519662,6.618125441616202,5.231556762614322,-112.4132166514411,464.1270884775196,-166.1120944787996,-236.9136877170746,70.4516004829463,
