-0.9974974822229682,0.6456801049836726,-0.8171941282387768,-0.9821771904660176,-0.09842219306009095,0.7519455549790948,0.7244788964506973,-0.467574083681753,-0.9824213385418257,-0.03012176885280923,0.1980956450086978,-0.1496932889797662,-0.01620532853175451,0.3857844782860805,0.6433606982634968,0.4640339365825373,-0.7539597766045106,0.8986785485396893,-0.08780175176244392,0.6788842432935576,0.06265449995422223,-0.7801446577349163,0.6692403942991424,0.6124759666737877,0.5044404431287576,-0.1266212958159124,0.391521958067568,-0.8049867244483779,-0.5453962828455459,0.195654164250618,-0.6314584795678579,0.1692251350444044,0.609057893612476,0.3355510116885891,0.7024445326090274,0.09018219550157171,0.4759971922971282,-0.7455366679891354,0.3077181310464797,0.3256019775994141,
0.1271706289864803,0.4932096316415907,-0.2710959196752831,-0.2442396313364055,-0.2957548753318888,0.4533524582659383,-0.5807977538377026,-0.4054383983886227,0.8375804925687429,-0.5892818994720298,-0.2295297097689749,0.6057618945890683,-0.8729209265419476,-0.3939024018066958,0.1640980254524369,-0.1888180181279946,-0.2643818475905637,0.8427686391796625,-0.4562211981566821,-0.2046876430555132,-0.6118655964842677,0.4862514114810633,0.4159978026673177,0.7052522354808192,0.3722952970976898,-0.5351420636616108,0.8496047853022858,0.250343333231605,0.5381328775902585,0.2694479201635792,0.4758140812402722,-0.2974028748435926,-0.7017731254005555,0.9530625324259163,0.488631855220191,-0.1034882656331065,-0.3722342600787378,-0.8685262611774041,-0.3557542649616993,-0.770928067873165,
-0.6133915219580676,-0.6517838068788721,-0.7053743095187232,0.06332590716269418,-0.8859218115787225,0.9118015076143681,0.5593127231666005,0.6802880947294534,-0.4482253486739707,0.4874721518601032,0.4700155644398328,0.03421124912259285,0.3995178075502793,-0.1468855861079745,-0.6172978911709952,-0.4408398693807795,0.6693624683370464,0.09909360026856288,0.9659413434247871,0.001800592059083834,0.6860866115298929,-0.3718680379650258,0.2004760887478255,-0.5788445692312387,0.08688619647816401,0.1557359538560137,-0.620105594042787,-0.8112125003814814,-0.1785637989440596,0.7095858638264108,0.1102633747367779,-0.01107821893978698,0.152073732718894,-0.3699758903775139,-0.6902371288186285,-0.1820429090243232,0.6533707693716239,0.5699331644642476,-0.7903988769188512,-0.01492355113376263,
0.6174810022278512,0.717886898403882,-0.6682027649769585,0.1423688467055269,0.2153691213721122,0.8514358958708457,0.6873073519089328,-0.9525131992553484,-0.4542069765312662,-0.06308175908688619,0.2179326761680959,0.9799798577837459,0.009613330484939116,-0.859248634296701,-0.6442152165288247,0.1374858851893674,-0.9298074282052065,-0.3080233161412397,-0.4044007690664388,0.7803277687917722,0.2535172582171087,0.8821375164036989,0.4944303720206305,-0.7687917722098453,-0.8522293771172216,0.065157017731254,-0.3281044953764458,-0.1245460371715445,-0.5960570085757012,0.6575823236793115,0.8101748710592974,-0.8392284920804468,0.7354655598620563,0.1384014404736473,-0.3461714529862361,-0.402508621478927,0.9181493575853755,0.04916531876583147,0.01010162663655507,-0.2417371135593738,
0.1700186162907804,0.4210028382213813,0.9770500808740501,0.2035279396954253,0.5666371654408399,0.07870723593859676,0.9935911130100405,-0.2482680745872372,0.1758171330912198,-0.08407849360637226,0.1448103274636067,0.5030976287118137,-0.7050080874050111,0.9332255012665182,0.6343882564775536,0.3644825586718345,0.03402813806573687,-0.0565507980590228,0.478377636036256,-0.9450666829432051,0.315225684377575,-0.4278389843440046,-0.4945524460585345,0.1064180425428022,-0.1265602587969604,0.2573625904110843,-0.6432996612445449,0.8630329294717246,0.2561418500320444,0.2495498519852291,-0.5142674031800287,0.4814905240028077,0.8231147190771203,-0.3883480330820643,-0.8413037507248146,-0.06888027588732566,0.7466963713492233,0.2192754905850398,-0.5458235419782098,-0.006378368480483413,
-0.0402539139988403,0.02706991790520951,-0.108615375225074,0.2143314920499283,0.6052125614185003,-0.7153233436078982,0.9993896298104801,-0.8147526474806971,0.3823664052247688,0.8983123264259774,-0.2773216956083865,-0.3088778344065676,0.8991668446913053,0.3663747062593463,-0.04947050386059145,0.5117038483840449,0.325968199713126,-0.250038148136845,0.1345561082796716,0.989257484664449,-0.6042970061342204,-0.3273720511490219,-0.7110507522812586,-0.9714957121494187,-0.5961180455946532,-0.6796166875209815,0.9903561510055849,-0.9031342509231849,0.2082888271736808,0.4418164616840113,-0.6221198156682027,0.2240974150822474,0.2294076357310709,-0.652150028992584,-0.8467970824304941,0.002410962248603778,0.4500564592425306,0.9122287667470321,-0.4194158757286294,0.586718344676046,
-0.2994170964690084,-0.392010254219184,-0.7618335520493179,-0.6675313577684866,0.03976561784722434,-0.07583849604785302,0.2229987487411115,0.3544114505447554,0.6752220221564379,0.488876003295999,-0.6968901638843958,-0.662038026062807,-0.7168492690816981,-0.6935331278420362,-0.6888943144016846,0.4438306833094272,-0.1475569933164464,0.6939603869747002,-0.6080202642902921,0.1451765495773187,0.684316537980285,-0.7194738608966338,-0.9967650379955443,-0.772453993346965,0.3924375133518479,0.00827051606799524,-0.08511612292855616,0.7892391735587634,-0.09677419354838709,0.1315042573320719,0.2094485305337687,0.2407605212561419,0.4553666798913541,-0.7828913235877559,0.281960509048738,-0.6946928312021241,-0.3998840296639912,-0.8554643391216773,0.8399609363078707,0.0185247352519303,
0.7919248023926512,-0.9700308236945707,-0.9906613361003449,0.32609027375103,-0.3960997344889676,-0.5293435468611714,-0.2151249732963042,-0.8875698110904263,0.4529862361522263,-0.783440656758324,-0.5497909482100894,0.3146153141880551,0.8102359080782494,0.7545091097750786,0.007843256935331278,-0.04940946684163945,-0.7906430249946592,-0.3662526322214423,0.5226294747764519,-0.8989837336344493,-0.7533494064149907,0.4661702322458571,-0.8779869991149633,-0.09097567674794763,-0.4192938016907254,0.9260841700491348,0.9960325937681204,-0.4199652088991974,-0.06729331339457381,-0.249732963042085,0.3970152897732475,0.3822443311868648,-0.913571581163976,0.7380901516769921,0.6400036622211371,-0.3539231543931394,0.8879970702230903,0.7512741477706228,0.1023285622730186,-0.2352671895504624,
